digraph Tree {
node [shape=box, style="filled, rounded", color="black", fontname="helvetica"] ;
edge [fontname="helvetica"] ;
0 [label="petal length (cm) <= 2.6\ngini = 0.67\nsamples = 88\nvalue = [54, 46, 50]\nclass = setosa", fillcolor="#fefaf7"] ;
1 [label="gini = 0.0\nsamples = 31\nvalue = [54, 0, 0]\nclass = setosa", fillcolor="#e58139"] ;
0 -> 1 [labeldistance=2.5, labelangle=45, headlabel="True"] ;
2 [label="petal length (cm) <= 4.75\ngini = 0.5\nsamples = 57\nvalue = [0, 46, 50]\nclass = virginica", fillcolor="#f5effd"] ;
0 -> 2 [labeldistance=2.5, labelangle=-45, headlabel="False"] ;
3 [label="sepal length (cm) <= 4.95\ngini = 0.05\nsamples = 23\nvalue = [0, 40, 1]\nclass = versicolor", fillcolor="#3ee684"] ;
2 -> 3 ;
4 [label="sepal width (cm) <= 2.45\ngini = 0.5\nsamples = 2\nvalue = [0, 1, 1]\nclass = versicolor", fillcolor="#ffffff"] ;
3 -> 4 ;
5 [label="gini = 0.0\nsamples = 1\nvalue = [0, 1, 0]\nclass = versicolor", fillcolor="#39e581"] ;
4 -> 5 ;
6 [label="gini = 0.0\nsamples = 1\nvalue = [0, 0, 1]\nclass = virginica", fillcolor="#8139e5"] ;
4 -> 6 ;
7 [label="gini = 0.0\nsamples = 21\nvalue = [0, 39, 0]\nclass = versicolor", fillcolor="#39e581"] ;
3 -> 7 ;
8 [label="petal length (cm) <= 5.05\ngini = 0.19\nsamples = 34\nvalue = [0, 6, 49]\nclass = virginica", fillcolor="#9051e8"] ;
2 -> 8 ;
9 [label="sepal width (cm) <= 3.05\ngini = 0.43\nsamples = 10\nvalue = [0, 6, 13]\nclass = virginica", fillcolor="#bb94f1"] ;
8 -> 9 ;
10 [label="petal width (cm) <= 1.75\ngini = 0.3\nsamples = 8\nvalue = [0, 3, 13]\nclass = virginica", fillcolor="#9e67eb"] ;
9 -> 10 ;
11 [label="sepal length (cm) <= 6.15\ngini = 0.5\nsamples = 3\nvalue = [0, 3, 3]\nclass = versicolor", fillcolor="#ffffff"] ;
10 -> 11 ;
12 [label="gini = 0.0\nsamples = 1\nvalue = [0, 0, 3]\nclass = virginica", fillcolor="#8139e5"] ;
11 -> 12 ;
13 [label="gini = 0.0\nsamples = 2\nvalue = [0, 3, 0]\nclass = versicolor", fillcolor="#39e581"] ;
11 -> 13 ;
14 [label="gini = 0.0\nsamples = 5\nvalue = [0, 0, 10]\nclass = virginica", fillcolor="#8139e5"] ;
10 -> 14 ;
15 [label="gini = 0.0\nsamples = 2\nvalue = [0, 3, 0]\nclass = versicolor", fillcolor="#39e581"] ;
9 -> 15 ;
16 [label="gini = 0.0\nsamples = 24\nvalue = [0, 0, 36]\nclass = virginica", fillcolor="#8139e5"] ;
8 -> 16 ;
}